digraph Tree {
node [shape=box, style="filled, rounded", color="black", fontname=helvetica] ;
edge [fontname=helvetica] ;
0 [label="sepal length (cm) <= 5.75\ngini = 0.66\nsamples = 95\nvalue = [54, 42, 54]\nclass = setosa", fillcolor="#ffffff"] ;
1 [label="petal width (cm) <= 0.8\ngini = 0.48\nsamples = 47\nvalue = [52, 23, 4]\nclass = setosa", fillcolor="#f2be98"] ;
0 -> 1 [labeldistance=2.5, labelangle=45, headlabel="True"] ;
2 [label="gini = 0.0\nsamples = 33\nvalue = [52, 0, 0]\nclass = setosa", fillcolor="#e58139"] ;
1 -> 2 ;
3 [label="petal length (cm) <= 4.7\ngini = 0.25\nsamples = 14\nvalue = [0, 23, 4]\nclass = versicolor", fillcolor="#5bea97"] ;
1 -> 3 ;
4 [label="sepal length (cm) <= 4.95\ngini = 0.15\nsamples = 12\nvalue = [0, 23, 2]\nclass = versicolor", fillcolor="#4ae78c"] ;
3 -> 4 ;
5 [label="sepal width (cm) <= 2.45\ngini = 0.5\nsamples = 2\nvalue = [0, 2, 2]\nclass = versicolor", fillcolor="#ffffff"] ;
4 -> 5 ;
6 [label="gini = 0.0\nsamples = 1\nvalue = [0, 2, 0]\nclass = versicolor", fillcolor="#39e581"] ;
5 -> 6 ;
7 [label="gini = 0.0\nsamples = 1\nvalue = [0, 0, 2]\nclass = virginica", fillcolor="#8139e5"] ;
5 -> 7 ;
8 [label="gini = 0.0\nsamples = 10\nvalue = [0, 21, 0]\nclass = versicolor", fillcolor="#39e581"] ;
4 -> 8 ;
9 [label="gini = 0.0\nsamples = 2\nvalue = [0, 0, 2]\nclass = virginica", fillcolor="#8139e5"] ;
3 -> 9 ;
10 [label="petal length (cm) <= 4.85\ngini = 0.43\nsamples = 48\nvalue = [2, 19, 50]\nclass = virginica", fillcolor="#b489f0"] ;
0 -> 10 [labeldistance=2.5, labelangle=-45, headlabel="False"] ;
11 [label="sepal width (cm) <= 3.6\ngini = 0.33\nsamples = 14\nvalue = [2, 17, 2]\nclass = versicolor", fillcolor="#63ea9c"] ;
10 -> 11 ;
12 [label="petal width (cm) <= 1.65\ngini = 0.19\nsamples = 13\nvalue = [0, 17, 2]\nclass = versicolor", fillcolor="#50e890"] ;
11 -> 12 ;
13 [label="gini = 0.0\nsamples = 11\nvalue = [0, 15, 0]\nclass = versicolor", fillcolor="#39e581"] ;
12 -> 13 ;
14 [label="sepal length (cm) <= 5.95\ngini = 0.5\nsamples = 2\nvalue = [0, 2, 2]\nclass = versicolor", fillcolor="#ffffff"] ;
12 -> 14 ;
15 [label="gini = 0.0\nsamples = 1\nvalue = [0, 2, 0]\nclass = versicolor", fillcolor="#39e581"] ;
14 -> 15 ;
16 [label="gini = 0.0\nsamples = 1\nvalue = [0, 0, 2]\nclass = virginica", fillcolor="#8139e5"] ;
14 -> 16 ;
17 [label="gini = 0.0\nsamples = 1\nvalue = [2, 0, 0]\nclass = setosa", fillcolor="#e58139"] ;
11 -> 17 ;
18 [label="petal width (cm) <= 1.75\ngini = 0.08\nsamples = 34\nvalue = [0, 2, 48]\nclass = virginica", fillcolor="#8641e6"] ;
10 -> 18 ;
19 [label="petal width (cm) <= 1.65\ngini = 0.38\nsamples = 4\nvalue = [0, 2, 6]\nclass = virginica", fillcolor="#ab7bee"] ;
18 -> 19 ;
20 [label="gini = 0.0\nsamples = 3\nvalue = [0, 0, 6]\nclass = virginica", fillcolor="#8139e5"] ;
19 -> 20 ;
21 [label="gini = 0.0\nsamples = 1\nvalue = [0, 2, 0]\nclass = versicolor", fillcolor="#39e581"] ;
19 -> 21 ;
22 [label="gini = 0.0\nsamples = 30\nvalue = [0, 0, 42]\nclass = virginica", fillcolor="#8139e5"] ;
18 -> 22 ;
}